[{"inputs": [0, 0, 0.22825528536812456, 0, 0.20316365390876223], "outputs": [0, 1, 1, 0, 0, 0], "biases": [0.03520768963003677, -0.37417941359096274, -0.21569027865386792, 0.10220448013548647, 0.20245704019765548, 0.03233831475006116], "weights": [[0.294883386377764, 0.31286023625396414, 0.209962208694651, 0.15899570455486509, 0.40744197217301553, -0.3294486804897005], [0.2667270537316492, -0.12573948742470087, -0.06683353318969507, 0.43508684929591385, -0.07000355913105658, -0.07902438381373458], [0.001110735431567908, 0.08723972175747204, 0.2628515537934617, 0.21368521697828585, 0.4144822739734069, -0.2435548575085883], [0.0845658722132491, 0.21889045755676106, 0.24095360596607152, 0.057542826146662965, -0.14466749206594498, 0.3422633687130276], [-0.11034857121276312, 0.022819568661979026, -0.1522112089702779, -0.14323065070295657, 0.0960722431373376, 0.06124215853211998]]}, {"inputs": [0, 1, 1, 0, 0, 0], "outputs": [1, 0, 1, 0], "biases": [0.040612277868477556, -0.04264685914327154, -0.02904042890198267, 0.12676970294669337], "weights": [[0.1626761633846857, 0.29484408856911726, -0.026969963657436744, -0.25629658509562636], [0.15532484754809367, 0.08172739225645151, -0.1383455614736828, -0.18754619215155063], [-0.04732076853277946, -0.26498448873110747, 0.37220932992058425, -0.06228629361455704], [0.3108756971485591, -0.03303871169590562, -0.25674617003470923, -0.013127567502358911], [-0.24362177471099655, 0.125360738409066, 0.017608931605155337, -0.10457862441591988], [-0.23966754339324803, 0.004950118631457792, 0.16771064397750512, 0.09609544173199676]]}]